<?xml version="1.0"?>
<opencv_storage>
<stage14>
  <maxWeakCount>38</maxWeakCount>
  <stageThreshold>-1.3762415647506714e+00</stageThreshold>
  <weakClassifiers>
    <_>
      <internalNodes>
        0 -1 28138 -341059633 -56632027 -1121401863 335407751
        -1961198114 -1309680913 464632059 -282368001</internalNodes>
      <leafValues>
        -3.8418078422546387e-01 4.4786565005779266e-02</leafValues></_>
    <_>
      <internalNodes>
        0 -1 39 1052927789 -1598689129 -1013728465 -1426582674 640400183
        119531958 -1348849369 -1489633452</internalNodes>
      <leafValues>
        -2.7582260966300964e-01 1.4070245623588562e-01</leafValues></_>
    <_>
      <internalNodes>
        0 -1 18042 -974131617 -254566248 1928559547 -1357810765
        -2028305455 -1829182953 385259643 -8313</internalNodes>
      <leafValues>
        -1.2845420837402344e-01 3.1389617919921875e-01</leafValues></_>
    <_>
      <internalNodes>
        0 -1 52590 -543163687 2040012020 906893649 2103040357 -938552406
        -636533143 -1907174489 -824515031</internalNodes>
      <leafValues>
        -1.3315735757350922e-01 2.8600081801414490e-01</leafValues></_>
    <_>
      <internalNodes>
        0 -1 359 -825971844 -1207423810 -1069232035 -168154678
        -565417884 -717764538 2005489144 1291518529</internalNodes>
      <leafValues>
        -2.7186772227287292e-01 1.4414712786674500e-01</leafValues></_>
    <_>
      <internalNodes>
        0 -1 50778 -691804264 2107759636 -1397776683 -1295931835
        1593284958 -545403845 2121991372 -554095446</internalNodes>
      <leafValues>
        -1.6896101832389832e-01 2.3549126088619232e-01</leafValues></_>
    <_>
      <internalNodes>
        0 -1 45144 -920354624 -802820024 422790304 1931162632 2085800204
        933183528 1885389518 1043513480</internalNodes>
      <leafValues>
        -2.5414678454399109e-01 1.7686617374420166e-01</leafValues></_>
    <_>
      <internalNodes>
        0 -1 54836 -2100653984 253809141 -1926796123 426949895
        -924071246 -1187348245 -1979654 10578504</internalNodes>
      <leafValues>
        -3.0927184224128723e-01 1.2835265696048737e-01</leafValues></_>
    <_>
      <internalNodes>
        0 -1 39462 -1225019609 -1963138889 -1627668731 -1460090633
        733895971 1761455588 -1618121358 -423936039</internalNodes>
      <leafValues>
        -1.6184520721435547e-01 2.5847768783569336e-01</leafValues></_>
    <_>
      <internalNodes>
        0 -1 12181 -138284834 -172279968 1377458197 -1231210578
        -24542004 -109367014 -1170844472 -519048005</internalNodes>
      <leafValues>
        -1.7774704098701477e-01 2.6351055502891541e-01</leafValues></_>
    <_>
      <internalNodes>
        0 -1 53914 -538459686 421229418 608654712 1259140564 553977101
        216029826 -1092462586 -981011973</internalNodes>
      <leafValues>
        -2.1301922202110291e-01 2.1633701026439667e-01</leafValues></_>
    <_>
      <internalNodes>
        0 -1 9058 202384752 527189264 30383591 792865765 82985437
        -1103436877 543958816 847649272</internalNodes>
      <leafValues>
        -4.1844266653060913e-01 1.1850334703922272e-01</leafValues></_>
    <_>
      <internalNodes>
        0 -1 3320 -324485657 -495015953 722033124 -1168228612 -258219305
        1383552909 532246401 -2066401294</internalNodes>
      <leafValues>
        -2.1277588605880737e-01 2.1908557415008545e-01</leafValues></_>
    <_>
      <internalNodes>
        0 -1 59387 -927347526 -1288564700 -1725096539 -683162028
        -738145030 -1102991305 1227382328 -328729710</internalNodes>
      <leafValues>
        -1.8608292937278748e-01 2.6343870162963867e-01</leafValues></_>
    <_>
      <internalNodes>
        0 -1 559 -383611080 -715403629 673252379 -1682977006 954814585
        -1045749716 -1732982146 1630616714</internalNodes>
      <leafValues>
        -2.4510620534420013e-01 1.8924818933010101e-01</leafValues></_>
    <_>
      <internalNodes>
        0 -1 58040 -805076968 332777094 51399968 -286643706 -778391640
        1116219392 -645814133 1734583259</internalNodes>
      <leafValues>
        -2.3697930574417114e-01 2.0322936773300171e-01</leafValues></_>
    <_>
      <internalNodes>
        0 -1 18654 -1057711779 -686208580 500915517 1463627093
        1460338429 -612483734 -2010608946 -1351904468</internalNodes>
      <leafValues>
        -1.5914000570774078e-01 3.1656983494758606e-01</leafValues></_>
    <_>
      <internalNodes>
        0 -1 48756 -35921694 -215307905 580993120 -746385252 -1452486984
        606082824 -1445891430 -604794746</internalNodes>
      <leafValues>
        -1.7777985334396362e-01 2.7072909474372864e-01</leafValues></_>
    <_>
      <internalNodes>
        0 -1 24856 745513059 113691987 -2095593570 3115803 -1192490665
        1932710930 -323785609 1907809249</internalNodes>
      <leafValues>
        -2.9776269197463989e-01 1.7500279843807220e-01</leafValues></_>
    <_>
      <internalNodes>
        0 -1 50552 -496832276 1890073400 -1288988657 -1881519749
        542290726 1994664116 -167100032 -512901261</internalNodes>
      <leafValues>
        -2.3535257577896118e-01 2.1461266279220581e-01</leafValues></_>
    <_>
      <internalNodes>
        0 -1 36165 -356646888 2124043804 -1139455533 -747060962
        -1228806411 1621759189 -486442242 448741435</internalNodes>
      <leafValues>
        -2.7164807915687561e-01 1.8751201033592224e-01</leafValues></_>
    <_>
      <internalNodes>
        0 -1 976 -1582127752 -1076096504 1765993055 206649592 193143276
        1520901867 1304826088 149181008</internalNodes>
      <leafValues>
        -3.9339175820350647e-01 1.2693238258361816e-01</leafValues></_>
    <_>
      <internalNodes>
        0 -1 8579 545459576 755413328 374363154 142616586 789613599
        33644824 73928159 1322113287</internalNodes>
      <leafValues>
        -4.0176010131835938e-01 1.2018833309412003e-01</leafValues></_>
    <_>
      <internalNodes>
        0 -1 64228 -720713560 -734096304 793050305 1398069952
        -1883864959 941441548 -1947828066 1598769850</internalNodes>
      <leafValues>
        -2.5582388043403625e-01 1.9672977924346924e-01</leafValues></_>
    <_>
      <internalNodes>
        0 -1 39067 -172977576 -584560288 -1909580713 457727076
        -1708606248 -481649388 428357311 -1139242768</internalNodes>
      <leafValues>
        -2.4925109744071960e-01 2.0569357275962830e-01</leafValues></_>
    <_>
      <internalNodes>
        0 -1 42243 -363559730 -640348423 -1320414767 2040143709
        -1982485771 1003049189 653624049 -1325322871</internalNodes>
      <leafValues>
        -2.1169631183147430e-01 2.4033421277999878e-01</leafValues></_>
    <_>
      <internalNodes>
        0 -1 43008 -804683638 222807729 89460736 1377599642 -204570163
        -1933557562 1525299369 1996546958</internalNodes>
      <leafValues>
        -2.8026512265205383e-01 1.8997001647949219e-01</leafValues></_>
    <_>
      <internalNodes>
        0 -1 65191 -807557376 281959288 2006236433 780664645 -1039287006
        715668367 -1428349944 -441596422</internalNodes>
      <leafValues>
        -2.3442780971527100e-01 2.2559265792369843e-01</leafValues></_>
    <_>
      <internalNodes>
        0 -1 20968 -262337 -1961673411 1647604209 1518160635 -573644965
        -1382064801 352475010 -208959945</internalNodes>
      <leafValues>
        -1.3305491209030151e-01 3.8090753555297852e-01</leafValues></_>
    <_>
      <internalNodes>
        0 -1 47135 54018168 -1296316240 525584985 1760347128 519314591
        1863574297 2119105163 1512368361</internalNodes>
      <leafValues>
        -3.4303492307662964e-01 1.6118778288364410e-01</leafValues></_>
    <_>
      <internalNodes>
        0 -1 52078 -796136782 1525096456 420642956 -172210869 -92329802
        -775024492 240233131 -70779870</internalNodes>
      <leafValues>
        -1.6724526882171631e-01 3.1463712453842163e-01</leafValues></_>
    <_>
      <internalNodes>
        0 -1 38827 -718765942 1956489085 -1065053641 -686284712
        -807340338 -301559414 -588736560 1250683593</internalNodes>
      <leafValues>
        -2.4207065999507904e-01 2.1746468544006348e-01</leafValues></_>
    <_>
      <internalNodes>
        0 -1 21866 -1413882387 -1536087091 67037165 -1433625885
        -1091328387 -1813395588 2090305309 -88248683</internalNodes>
      <leafValues>
        -2.0351718366146088e-01 2.6760289072990417e-01</leafValues></_>
    <_>
      <internalNodes>
        0 -1 58644 -364578409 -1590634755 -1212569641 -1072875385
        -1726412992 -571375653 1467303840 -321560507</internalNodes>
      <leafValues>
        -2.2046536207199097e-01 2.5327286124229431e-01</leafValues></_>
    <_>
      <internalNodes>
        0 -1 42762 -826773230 2063231740 464670708 -976459066 558518867
        -1669614073 1960108675 -467843989</internalNodes>
      <leafValues>
        -2.3576048016548157e-01 2.2718918323516846e-01</leafValues></_>
    <_>
      <internalNodes>
        0 -1 51050 2005588729 -1200044054 1750792211 -470214551
        -338628070 -489100269 -1690018128 -8662594</internalNodes>
      <leafValues>
        -1.7359094321727753e-01 3.1520077586174011e-01</leafValues></_>
    <_>
      <internalNodes>
        0 -1 43044 -1035196086 1390180507 1301449883 -841187200
        -1441031418 -351188970 -1837260075 298280363</internalNodes>
      <leafValues>
        -2.5761625170707703e-01 2.0478112995624542e-01</leafValues></_>
    <_>
      <internalNodes>
        0 -1 5638 -1889273365 -961927038 771115955 -6180188 -1889805826
        -16253053 -1513171471 -1180861925</internalNodes>
      <leafValues>
        -1.4251580834388733e-01 3.7917393445968628e-01</leafValues></_></weakClassifiers></stage14>
</opencv_storage>
