<?xml version="1.0"?>
<opencv_storage>
<stage17>
  <maxWeakCount>38</maxWeakCount>
  <stageThreshold>-1.3854779005050659e+00</stageThreshold>
  <weakClassifiers>
    <_>
      <internalNodes>
        0 -1 61893 766347103 -1538795907 523934879 -1464161621
        -314540171 -1729453217 1669316869 -1711856492</internalNodes>
      <leafValues>
        -4.4758680462837219e-01 -7.0068694651126862e-02</leafValues></_>
    <_>
      <internalNodes>
        0 -1 352 -376707405 -1063211093 -1564606517 1726302318
        1873001333 -129630505 -956869247 -527689</internalNodes>
      <leafValues>
        -1.3896813988685608e-01 2.9416978359222412e-01</leafValues></_>
    <_>
      <internalNodes>
        0 -1 46710 890510232 948614538 1715721014 -1110893144 637024155
        -679048035 167317412 1003696720</internalNodes>
      <leafValues>
        -3.8064560294151306e-01 9.9557019770145416e-02</leafValues></_>
    <_>
      <internalNodes>
        0 -1 26877 -652487983 532301969 56155007 330247349 1025822139
        -1379760075 1002077447 -23330817</internalNodes>
      <leafValues>
        -1.0141566395759583e-01 3.4538915753364563e-01</leafValues></_>
    <_>
      <internalNodes>
        0 -1 63448 -250615300 -21640808 490107297 1368252716 -1586124068
        -1412985646 -568678439 -895489378</internalNodes>
      <leafValues>
        -1.1942893266677856e-01 3.2824328541755676e-01</leafValues></_>
    <_>
      <internalNodes>
        0 -1 49125 1830014712 -548745160 553929043 1561350352 995251802
        -77997944 -1806006129 42467538</internalNodes>
      <leafValues>
        -2.7305111289024353e-01 1.5143929421901703e-01</leafValues></_>
    <_>
      <internalNodes>
        0 -1 58484 -721420433 452966779 -83907603 -356645020 1732148629
        2050461534 -608290418 -1294260309</internalNodes>
      <leafValues>
        -1.5046432614326477e-01 2.8266593813896179e-01</leafValues></_>
    <_>
      <internalNodes>
        0 -1 60038 -2004123580 1002761023 -1707241295 2013902515
        -765485195 -892926044 -1180499180 -1003410943</internalNodes>
      <leafValues>
        -2.5440627336502075e-01 1.7280054092407227e-01</leafValues></_>
    <_>
      <internalNodes>
        0 -1 46905 757728284 88246338 67575896 599321675 -205349792
        250954210 2143575762 339525846</internalNodes>
      <leafValues>
        -3.4780174493789673e-01 1.3165733218193054e-01</leafValues></_>
    <_>
      <internalNodes>
        0 -1 21518 -845100551 1562362952 851245435 -746085695 725281808
        -1855334704 1336106749 -75052981</internalNodes>
      <leafValues>
        -1.4753319323062897e-01 3.0400678515434265e-01</leafValues></_>
    <_>
      <internalNodes>
        0 -1 32493 12849412 7738101 -711810586 -322401369 -133936889
        128310851 1043055652 -1521205323</internalNodes>
      <leafValues>
        -3.5525313019752502e-01 1.1694997549057007e-01</leafValues></_>
    <_>
      <internalNodes>
        0 -1 48910 -164105099 1203476353 1140161381 -168307718
        -116343050 -585626889 -744366454 -7362422</internalNodes>
      <leafValues>
        -1.2001888453960419e-01 3.7221598625183105e-01</leafValues></_>
    <_>
      <internalNodes>
        0 -1 48700 -217542520 8594540 1221609792 -1012146014 1800988452
        1571492357 1887490313 1136910338</internalNodes>
      <leafValues>
        -2.9139021039009094e-01 1.5142460167407990e-01</leafValues></_>
    <_>
      <internalNodes>
        0 -1 34440 -584872454 -749637456 190074591 -265039543
        -1099429182 -1084515590 148806905 -1649437474</internalNodes>
      <leafValues>
        -1.5580822527408600e-01 2.8999948501586914e-01</leafValues></_>
    <_>
      <internalNodes>
        0 -1 53788 -112990197 -792204516 -2106357505 -9854219 -98055755
        -1131627615 -7746594 -74060102</internalNodes>
      <leafValues>
        -1.3836719095706940e-01 3.6476707458496094e-01</leafValues></_>
    <_>
      <internalNodes>
        0 -1 26414 419954946 -1480513352 -301466081 201410583 369291419
        291956848 -1711159741 188310384</internalNodes>
      <leafValues>
        -3.3185151219367981e-01 1.5649154782295227e-01</leafValues></_>
    <_>
      <internalNodes>
        0 -1 26254 -506004645 1274854248 -1646403964 -1112577225
        -650053385 2078801271 1836636421 -2566146</internalNodes>
      <leafValues>
        -1.4429570734500885e-01 3.5095134377479553e-01</leafValues></_>
    <_>
      <internalNodes>
        0 -1 45410 -33821697 -616958342 -2039449485 -141047792
        -298976032 -336914857 -2049306241 -69531142</internalNodes>
      <leafValues>
        -1.2422911822795868e-01 3.9311325550079346e-01</leafValues></_>
    <_>
      <internalNodes>
        0 -1 18147 -820839273 -479732559 -1162853516 -1011484965
        -916027734 -347883684 245737176 -608259700</internalNodes>
      <leafValues>
        -1.5298773348331451e-01 3.1812772154808044e-01</leafValues></_>
    <_>
      <internalNodes>
        0 -1 54636 353037616 -1723840442 285252957 226567104 -1537440067
        -1408630573 -812797311 472842408</internalNodes>
      <leafValues>
        -3.5435709357261658e-01 1.4960241317749023e-01</leafValues></_>
    <_>
      <internalNodes>
        0 -1 67562 -604246169 102007748 -1124075530 787642432 13871828
        -2051834491 -427876552 -906051614</internalNodes>
      <leafValues>
        -1.7731975018978119e-01 3.0181413888931274e-01</leafValues></_>
    <_>
      <internalNodes>
        0 -1 52180 -208698712 -963702496 -2113716187 -213344051
        -502169176 639238052 899859366 1526977232</internalNodes>
      <leafValues>
        -2.4193727970123291e-01 2.1362507343292236e-01</leafValues></_>
    <_>
      <internalNodes>
        0 -1 31588 -79718417 -411849633 1482235368 -258769191 -511718918
        -2067111671 723761400 -167126137</internalNodes>
      <leafValues>
        -1.4510002732276917e-01 3.4892350435256958e-01</leafValues></_>
    <_>
      <internalNodes>
        0 -1 3153 539394032 315916531 -997786306 -1460876938 1747338421
        1900253128 1959333632 1700203975</internalNodes>
      <leafValues>
        -3.0427044630050659e-01 1.6433605551719666e-01</leafValues></_>
    <_>
      <internalNodes>
        0 -1 56933 324069872 -1249439647 -2092602253 353174799 811108716
        -1595929909 1548235738 -2093415771</internalNodes>
      <leafValues>
        -2.1888373792171478e-01 2.2539545595645905e-01</leafValues></_>
    <_>
      <internalNodes>
        0 -1 29872 1511824888 752336852 -1216137434 -490688179 759257133
        1926805391 127634240 -1348190996</internalNodes>
      <leafValues>
        -2.7937990427017212e-01 1.7284642159938812e-01</leafValues></_>
    <_>
      <internalNodes>
        0 -1 66146 -700350320 1902313689 32527536 -1623123948 -378777958
        -1725321035 1124632766 579436742</internalNodes>
      <leafValues>
        -2.4715186655521393e-01 2.0595191419124603e-01</leafValues></_>
    <_>
      <internalNodes>
        0 -1 48610 1223170200 753632459 -624845736 1506451073 -947897998
        1248261547 -360542469 2058881243</internalNodes>
      <leafValues>
        -2.8366303443908691e-01 1.7824974656105042e-01</leafValues></_>
    <_>
      <internalNodes>
        0 -1 34458 813182480 521189280 -1917958667 406195668 -2078257390
        -1953608321 -1354859314 567549237</internalNodes>
      <leafValues>
        -4.2972791194915771e-01 1.2234739959239960e-01</leafValues></_>
    <_>
      <internalNodes>
        0 -1 47104 -543169541 -651625979 -1146138147 -5222246
        -1479857475 -1158730154 -1432637446 -6313222</internalNodes>
      <leafValues>
        -1.1797773092985153e-01 4.4625008106231689e-01</leafValues></_>
    <_>
      <internalNodes>
        0 -1 12042 -750579598 298503312 -1882947255 524673424 757001597
        1283392512 599063398 -817770089</internalNodes>
      <leafValues>
        -2.3805686831474304e-01 2.1782062947750092e-01</leafValues></_>
    <_>
      <internalNodes>
        0 -1 34135 1076458626 -1366561117 1577448694 1622241750
        -1002044870 -898154494 445422239 2060518023</internalNodes>
      <leafValues>
        -3.0295705795288086e-01 1.7142182588577271e-01</leafValues></_>
    <_>
      <internalNodes>
        0 -1 19891 -240409761 -441723670 -190984266 5078884 -987568162
        -2119051913 1065595950 -704775282</internalNodes>
      <leafValues>
        -1.4765898883342743e-01 3.5157853364944458e-01</leafValues></_>
    <_>
      <internalNodes>
        0 -1 5947 -677126027 -783088994 -276989673 -653089130 2109343893
        -836597236 644808649 -1778685646</internalNodes>
      <leafValues>
        -1.6409361362457275e-01 3.1235003471374512e-01</leafValues></_>
    <_>
      <internalNodes>
        0 -1 38424 -1402331048 693053857 -368280418 873277574 -255748297
        1103284341 1019258732 127044688</internalNodes>
      <leafValues>
        -3.6755895614624023e-01 1.4036791026592255e-01</leafValues></_>
    <_>
      <internalNodes>
        0 -1 34387 -735801136 -71023536 675565139 1443399064 482495518
        1678832274 1342996124 1043615018</internalNodes>
      <leafValues>
        -3.2702937722206116e-01 1.6574066877365112e-01</leafValues></_>
    <_>
      <internalNodes>
        0 -1 34161 -2013937509 517771202 1944712143 -705454339
        1470573139 -1116082736 223254634 -83503389</internalNodes>
      <leafValues>
        -1.7603401839733124e-01 3.1043425202369690e-01</leafValues></_>
    <_>
      <internalNodes>
        0 -1 28997 1932560575 -693636673 200209103 -759885874 1494858447
        31932194 2037972158 -25480484</internalNodes>
      <leafValues>
        -1.7530153691768646e-01 3.1096723675727844e-01</leafValues></_></weakClassifiers></stage17>
</opencv_storage>
