<?xml version="1.0"?>
<opencv_storage>
<stage12>
  <maxWeakCount>39</maxWeakCount>
  <stageThreshold>-1.3164749145507812e+00</stageThreshold>
  <weakClassifiers>
    <_>
      <internalNodes>
        0 -1 16146 2004813743 -1903769273 -1122013778 251121515
        -34834569 934925651 -13698179 -352852105</internalNodes>
      <leafValues>
        -4.3376711010932922e-01 -7.9904116690158844e-02</leafValues></_>
    <_>
      <internalNodes>
        0 -1 1117 -2069200708 914810427 -1760853771 857777726 1702691068
        1853558469 1354891381 1462780497</internalNodes>
      <leafValues>
        -3.2928174734115601e-01 1.0061116516590118e-01</leafValues></_>
    <_>
      <internalNodes>
        0 -1 39073 -244529032 2021755832 55103957 -77461223 -1709665726
        -813244962 174348185 1750520836</internalNodes>
      <leafValues>
        -2.2436635196208954e-01 1.6159570217132568e-01</leafValues></_>
    <_>
      <internalNodes>
        0 -1 47090 -720863104 534639245 395471122 2104787376 1349554588
        -1672738008 687907723 1083826888</internalNodes>
      <leafValues>
        -2.3786912858486176e-01 1.7102786898612976e-01</leafValues></_>
    <_>
      <internalNodes>
        0 -1 45208 1746964624 505354444 449513689 100401300 325593248
        1065257208 -190898578 1060255646</internalNodes>
      <leafValues>
        -3.2324400544166565e-01 1.2236259132623672e-01</leafValues></_>
    <_>
      <internalNodes>
        0 -1 3154 1652023263 -1209180385 -18551873 -1094791302
        1281996769 -327156036 -1762193497 -318804633</internalNodes>
      <leafValues>
        -1.1990234255790710e-01 3.2030579447746277e-01</leafValues></_>
    <_>
      <internalNodes>
        0 -1 62373 -1842813022 500271513 -2077732889 732027719
        1074331532 783174627 968567774 1103165379</internalNodes>
      <leafValues>
        -2.3774385452270508e-01 1.6392949223518372e-01</leafValues></_>
    <_>
      <internalNodes>
        0 -1 43320 -242371592 -36892400 364383231 1609511313 -994139224
        -290965508 -344285761 -645809990</internalNodes>
      <leafValues>
        -1.4893487095832825e-01 2.6866427063941956e-01</leafValues></_>
    <_>
      <internalNodes>
        0 -1 11286 292946968 479012276 -876206377 -1014122391
        -1423548997 -1113839193 137700109 325713963</internalNodes>
      <leafValues>
        -4.0874668955802917e-01 9.3095548450946808e-02</leafValues></_>
    <_>
      <internalNodes>
        0 -1 1236 1831855807 -796796681 155302527 -1043937246
        -1084891615 1979006624 1953838663 -162016761</internalNodes>
      <leafValues>
        -1.3801877200603485e-01 3.0762076377868652e-01</leafValues></_>
    <_>
      <internalNodes>
        0 -1 21279 -133652328 -978845336 -1000083290 -578223724
        -1406882609 -1324816150 -1332626552 193929346</internalNodes>
      <leafValues>
        -2.4062164127826691e-01 1.7442607879638672e-01</leafValues></_>
    <_>
      <internalNodes>
        0 -1 37134 -858903930 -1503334940 -1605358996 1688483492
        1561657879 818678081 1031710880 604337977</internalNodes>
      <leafValues>
        -3.8295108079910278e-01 1.1601072549819946e-01</leafValues></_>
    <_>
      <internalNodes>
        0 -1 10705 -924716496 -167282622 215121854 934504743 -892339461
        1058757472 75890685 233304083</internalNodes>
      <leafValues>
        -2.1997849643230438e-01 1.9774484634399414e-01</leafValues></_>
    <_>
      <internalNodes>
        0 -1 2898 -1723793668 820564080 721426232 1028955572 1289791414
        1546971317 49038680 766467940</internalNodes>
      <leafValues>
        -2.5859126448631287e-01 1.6613481938838959e-01</leafValues></_>
    <_>
      <internalNodes>
        0 -1 792 -1374699308 1370135893 -414526840 1174106776
        -1801789486 1378703455 673853099 967445826</internalNodes>
      <leafValues>
        -2.8091585636138916e-01 1.5976373851299286e-01</leafValues></_>
    <_>
      <internalNodes>
        0 -1 50401 -784288946 -687570240 -2123988784 -708472120
        -334832920 470320208 -398208310 1078432278</internalNodes>
      <leafValues>
        -2.4644997715950012e-01 1.8580688536167145e-01</leafValues></_>
    <_>
      <internalNodes>
        0 -1 50813 1568423764 -598063052 1514561919 -667529780 843330041
        -1081423044 -1863431809 -643202291</internalNodes>
      <leafValues>
        -2.8728008270263672e-01 1.4462959766387939e-01</leafValues></_>
    <_>
      <internalNodes>
        0 -1 65008 -1358200688 -77232100 1512442773 -746479262
        -996564822 -1951936648 -1239633730 1258406584</internalNodes>
      <leafValues>
        -2.2568805515766144e-01 2.0467357337474823e-01</leafValues></_>
    <_>
      <internalNodes>
        0 -1 50875 -1667640624 -774798200 1348592560 1077954524 42230338
        -964906874 459557288 1242594262</internalNodes>
      <leafValues>
        -2.9577270150184631e-01 1.5431345999240875e-01</leafValues></_>
    <_>
      <internalNodes>
        0 -1 3474 -194001394 -1507819274 -745115073 1537926698
        1906257951 742775337 1591328138 1084508511</internalNodes>
      <leafValues>
        -2.3954094946384430e-01 1.9613598287105560e-01</leafValues></_>
    <_>
      <internalNodes>
        0 -1 23688 -563961638 1376268502 2013298846 -99286782 -48173490
        -1607793143 140619912 2035536207</internalNodes>
      <leafValues>
        -2.2794750332832336e-01 2.0382460951805115e-01</leafValues></_>
    <_>
      <internalNodes>
        0 -1 36673 1518387672 -619812840 -1207405059 1433869624
        -2070265687 -890006736 1353746596 1521528934</internalNodes>
      <leafValues>
        -2.4541448056697845e-01 1.9001795351505280e-01</leafValues></_>
    <_>
      <internalNodes>
        0 -1 47104 -1987325483 2099415248 -542155685 -148186469
        759478480 -891297212 -1988654862 -4938850</internalNodes>
      <leafValues>
        -1.6772067546844482e-01 2.8597390651702881e-01</leafValues></_>
    <_>
      <internalNodes>
        0 -1 49387 -1586469907 -327942277 -1795356500 686562279
        1071070051 1738616279 -48808074 -1361228937</internalNodes>
      <leafValues>
        -1.9934791326522827e-01 2.2992694377899170e-01</leafValues></_>
    <_>
      <internalNodes>
        0 -1 46707 -401599848 -1196157802 -972207248 -924677490
        -752876400 -1405719278 101358337 303267842</internalNodes>
      <leafValues>
        -3.3792823553085327e-01 1.2670509517192841e-01</leafValues></_>
    <_>
      <internalNodes>
        0 -1 22797 1216247335 1320156971 -858872579 -399528455 -68829673
        -1499054565 193271651 -288965549</internalNodes>
      <leafValues>
        -2.0022521913051605e-01 2.3330119252204895e-01</leafValues></_>
    <_>
      <internalNodes>
        0 -1 2146 -239403865 1192399641 1392344085 2146202364 -616984117
        -1396229993 861204479 -2090075403</internalNodes>
      <leafValues>
        -1.6178590059280396e-01 2.9756125807762146e-01</leafValues></_>
    <_>
      <internalNodes>
        0 -1 43386 -40905253 -1074195239 1481701745 -1110290804
        -1106370678 -354347430 -1999453547 -2001019506</internalNodes>
      <leafValues>
        -1.5681418776512146e-01 2.9971188306808472e-01</leafValues></_>
    <_>
      <internalNodes>
        0 -1 48645 -33845029 -118302866 440954791 -742545713 -32542757
        -545390202 -205016943 -498621286</internalNodes>
      <leafValues>
        -1.3616292178630829e-01 3.4540387988090515e-01</leafValues></_>
    <_>
      <internalNodes>
        0 -1 43030 -845060372 1281106551 -191701921 2023183168
        1527125598 337629374 203463947 1398867146</internalNodes>
      <leafValues>
        -2.6648724079132080e-01 1.7831268906593323e-01</leafValues></_>
    <_>
      <internalNodes>
        0 -1 56660 -589977432 1478028832 1613866506 -1089486791
        1919340840 -1167069504 558283451 1292337802</internalNodes>
      <leafValues>
        -2.5325113534927368e-01 1.8140110373497009e-01</leafValues></_>
    <_>
      <internalNodes>
        0 -1 65244 1873084197 -437915500 -1748132076 -1426271482
        -833602012 364510263 -75788272 307698781</internalNodes>
      <leafValues>
        -2.7005413174629211e-01 1.7959849536418915e-01</leafValues></_>
    <_>
      <internalNodes>
        0 -1 52426 2069913624 194427617 6216048 1762114742 775563412
        131176338 505581695 -559953545</internalNodes>
      <leafValues>
        -2.5330361723899841e-01 1.8942992389202118e-01</leafValues></_>
    <_>
      <internalNodes>
        0 -1 26334 956829018 322988576 -16746851 672336394 716388955
        400608171 1795739985 122027251</internalNodes>
      <leafValues>
        -3.5105419158935547e-01 1.3676998019218445e-01</leafValues></_>
    <_>
      <internalNodes>
        0 -1 3866 1125291810 1464060291 2101991709 -1682584827
        -347118849 1865974307 -1554135986 52351360</internalNodes>
      <leafValues>
        -2.3915526270866394e-01 2.0316307246685028e-01</leafValues></_>
    <_>
      <internalNodes>
        0 -1 41704 1307951959 175633731 1911505823 -1975876113
        2142544646 1023009085 965548586 2053110570</internalNodes>
      <leafValues>
        -2.1681456267833710e-01 2.2630910575389862e-01</leafValues></_>
    <_>
      <internalNodes>
        0 -1 9149 1194307835 1408177666 -842080579 760080207 -235108610
        -1300937185 -982982690 -7080362</internalNodes>
      <leafValues>
        -1.5497057139873505e-01 3.3089330792427063e-01</leafValues></_>
    <_>
      <internalNodes>
        0 -1 40935 -418937774 1379645672 781392715 -1186751558
        -832208888 -298341214 -98107823 -122313753</internalNodes>
      <leafValues>
        -1.7707805335521698e-01 2.7538782358169556e-01</leafValues></_>
    <_>
      <internalNodes>
        0 -1 8290 1193416720 -352120928 -528471179 -56016862 61868218
        970826737 747584797 685047976</internalNodes>
      <leafValues>
        -3.7317743897438049e-01 1.2699669599533081e-01</leafValues></_></weakClassifiers></stage12>
</opencv_storage>
