<?xml version="1.0"?>
<opencv_storage>
<stage8>
  <maxWeakCount>38</maxWeakCount>
  <stageThreshold>-1.4363262653350830e+00</stageThreshold>
  <weakClassifiers>
    <_>
      <internalNodes>
        0 -1 1493 -66464291 1606359155 1057052245 1570719097 -1425419521
        -759441062 599178735 -71442945</internalNodes>
      <leafValues>
        -3.9012759923934937e-01 8.3307623863220215e-03</leafValues></_>
    <_>
      <internalNodes>
        0 -1 65231 -432930955 117194237 2144857974 117217087 1031654260
        1178321640 -639934720 49275750</internalNodes>
      <leafValues>
        -2.4448072910308838e-01 1.5518115460872650e-01</leafValues></_>
    <_>
      <internalNodes>
        0 -1 34407 -1910979496 2099604720 455851001 1555649777
        -1103619454 -309396840 524058587 1001346935</internalNodes>
      <leafValues>
        -2.5961893796920776e-01 1.4967489242553711e-01</leafValues></_>
    <_>
      <internalNodes>
        0 -1 49160 -653732648 -620588836 418956337 1996857688
        -2119647048 -1360992080 436767912 251659384</internalNodes>
      <leafValues>
        -2.7370578050613403e-01 1.4035578072071075e-01</leafValues></_>
    <_>
      <internalNodes>
        0 -1 45754 -1673918107 1820065787 1522515950 -321198377
        1341307447 771155966 -36028 -422511819</internalNodes>
      <leafValues>
        -1.8756714463233948e-01 2.2137689590454102e-01</leafValues></_>
    <_>
      <internalNodes>
        0 -1 50520 -217919360 1489212264 671371285 -774758220
        -1970376564 -620523424 1394643090 1598275866</internalNodes>
      <leafValues>
        -2.4645388126373291e-01 1.6521313786506653e-01</leafValues></_>
    <_>
      <internalNodes>
        0 -1 46265 1147979312 458303028 -237765445 2134462397 811464122
        -1611160322 1022960810 218629281</internalNodes>
      <leafValues>
        -3.3315792679786682e-01 1.0674403607845306e-01</leafValues></_>
    <_>
      <internalNodes>
        0 -1 41192 -654273384 2078088664 1333273624 1472532544
        -2147419510 -1114494656 202045690 587759646</internalNodes>
      <leafValues>
        -2.5067970156669617e-01 1.7883181571960449e-01</leafValues></_>
    <_>
      <internalNodes>
        0 -1 27339 -806638753 779866981 -90218534 552294334 2132741959
        670691033 -11965327 -22610947</internalNodes>
      <leafValues>
        -2.3318234086036682e-01 1.7688272893428802e-01</leafValues></_>
    <_>
      <internalNodes>
        0 -1 2751 1432809454 -1089507562 -571932940 2011245368
        1722851311 -1423016993 1814446042 -436249269</internalNodes>
      <leafValues>
        -1.6718125343322754e-01 2.5409907102584839e-01</leafValues></_>
    <_>
      <internalNodes>
        0 -1 45049 66214940 205005322 -1375387224 1936450931 1207143018
        1563127805 -619648976 1463426942</internalNodes>
      <leafValues>
        -3.4493312239646912e-01 1.1753866821527481e-01</leafValues></_>
    <_>
      <internalNodes>
        0 -1 524 -1475828998 1902806970 -1114683139 -348127277
        1052641765 -1611525847 1451560360 1382113376</internalNodes>
      <leafValues>
        -2.9240617156028748e-01 1.4681667089462280e-01</leafValues></_>
    <_>
      <internalNodes>
        0 -1 61512 -225869616 2108129524 738746384 1493545488 -719998772
        -1709628639 -1828182102 1508879563</internalNodes>
      <leafValues>
        -2.1773585677146912e-01 1.9965913891792297e-01</leafValues></_>
    <_>
      <internalNodes>
        0 -1 17241 607278112 1176129628 1813625808 1598427420 53688375
        -413476529 77024865 727341752</internalNodes>
      <leafValues>
        -3.9050877094268799e-01 1.1513029038906097e-01</leafValues></_>
    <_>
      <internalNodes>
        0 -1 43182 -644231078 -960402184 202513406 -583721667
        -1892514662 -119513349 1582602956 -1742023406</internalNodes>
      <leafValues>
        -2.2161468863487244e-01 1.9912157952785492e-01</leafValues></_>
    <_>
      <internalNodes>
        0 -1 54105 -73740101 -134515616 -651487435 1999713556
        -2093156614 -1197154869 -1725238338 -633627240</internalNodes>
      <leafValues>
        -1.4165763556957245e-01 3.0241847038269043e-01</leafValues></_>
    <_>
      <internalNodes>
        0 -1 40928 -250560374 1562487728 275155187 -1735173835
        -1063739768 -1205787072 -1014196244 1138987536</internalNodes>
      <leafValues>
        -2.6176476478576660e-01 1.7011047899723053e-01</leafValues></_>
    <_>
      <internalNodes>
        0 -1 62776 1503915840 1037284271 -545014951 930512176 609100980
        2076176049 452666256 -1359498752</internalNodes>
      <leafValues>
        -2.3511432111263275e-01 1.9277387857437134e-01</leafValues></_>
    <_>
      <internalNodes>
        0 -1 2050 -234951837 674327394 -1757681824 423181366 -300781284
        -454164783 2012731373 -1016870150</internalNodes>
      <leafValues>
        -2.0531414449214935e-01 2.2004319727420807e-01</leafValues></_>
    <_>
      <internalNodes>
        0 -1 40818 1243644594 1072176569 -600153484 2088119364
        2068573023 -1110516030 2048795416 1001458410</internalNodes>
      <leafValues>
        -3.0911931395530701e-01 1.4868508279323578e-01</leafValues></_>
    <_>
      <internalNodes>
        0 -1 46698 -104877586 -4211256 -699885816 1475445274 -326589808
        -2004168192 -786385010 -972318221</internalNodes>
      <leafValues>
        -1.6432662308216095e-01 2.7447247505187988e-01</leafValues></_>
    <_>
      <internalNodes>
        0 -1 64620 -1405915357 1251899239 -1813701210 -2035631257
        1966985992 -1566310810 -1126172416 -525998659</internalNodes>
      <leafValues>
        -2.3437306284904480e-01 1.9777059555053711e-01</leafValues></_>
    <_>
      <internalNodes>
        0 -1 52438 -1853875048 -1319550380 2050078192 2144407704
        -1816071000 -1164410368 -1793535749 830996488</internalNodes>
      <leafValues>
        -3.7541171908378601e-01 1.2562701106071472e-01</leafValues></_>
    <_>
      <internalNodes>
        0 -1 3108 1794441198 -221482826 -1232668762 -1343736098
        1186208629 653731619 -393417785 1694433858</internalNodes>
      <leafValues>
        -2.5278839468955994e-01 1.8553869426250458e-01</leafValues></_>
    <_>
      <internalNodes>
        0 -1 36077 504762192 1948792412 -1081192942 253243228 891333298
        1017650263 762322815 1821318409</internalNodes>
      <leafValues>
        -4.5543545484542847e-01 9.6082858741283417e-02</leafValues></_>
    <_>
      <internalNodes>
        0 -1 43141 -611465069 -26834859 -1155953217 -1074619781
        2069962890 -1625559336 -1854028563 -891366662</internalNodes>
      <leafValues>
        -1.4754475653171539e-01 3.1904628872871399e-01</leafValues></_>
    <_>
      <internalNodes>
        0 -1 45158 -301071717 1957461737 1762577008 1633313082 58175651
        879007574 520856108 -228989126</internalNodes>
      <leafValues>
        -2.1482874453067780e-01 2.1321983635425568e-01</leafValues></_>
    <_>
      <internalNodes>
        0 -1 59450 -1023372624 1474758664 432550329 1998509170
        -1290594918 -1575993759 180604388 1395380344</internalNodes>
      <leafValues>
        -2.7804675698280334e-01 1.7190663516521454e-01</leafValues></_>
    <_>
      <internalNodes>
        0 -1 1058 19190888 1146387676 -1356994847 -1652223982 1110458976
        454447940 1143330737 876371389</internalNodes>
      <leafValues>
        -3.7207472324371338e-01 1.3027895987033844e-01</leafValues></_>
    <_>
      <internalNodes>
        0 -1 54432 257623813 -913772870 -1394625109 -320162357
        -1631625615 1908273655 -11065543 -1766596643</internalNodes>
      <leafValues>
        -2.1524424850940704e-01 2.2277592122554779e-01</leafValues></_>
    <_>
      <internalNodes>
        0 -1 41585 -1364500757 701801309 -852600374 743403505
        -1831379089 1207137155 -1318379403 -1079342111</internalNodes>
      <leafValues>
        -2.2598864138126373e-01 2.0989651978015900e-01</leafValues></_>
    <_>
      <internalNodes>
        0 -1 48700 -765867392 -803107166 1095160257 -137317792
        -284651904 -1955982448 -255842104 1226895650</internalNodes>
      <leafValues>
        -2.7715459465980530e-01 1.8204551935195923e-01</leafValues></_>
    <_>
      <internalNodes>
        0 -1 18299 -854862662 -16579840 410244317 2103004296 -1005398854
        -1301670307 -295641944 -61580289</internalNodes>
      <leafValues>
        -1.8340767920017242e-01 2.7094125747680664e-01</leafValues></_>
    <_>
      <internalNodes>
        0 -1 40943 -100607659 665523880 -399269697 -36744981 -1075176837
        -135018515 1340859864 -298705250</internalNodes>
      <leafValues>
        -1.7506903409957886e-01 2.7621129155158997e-01</leafValues></_>
    <_>
      <internalNodes>
        0 -1 42858 537353805 -1067456940 688729264 2085858386 686339639
        107455758 184977269 261354094</internalNodes>
      <leafValues>
        -2.8329807519912720e-01 1.7149268090724945e-01</leafValues></_>
    <_>
      <internalNodes>
        0 -1 64180 -539311682 -45485996 -885523343 -720645104 199356616
        -1718874976 525180890 -619715174</internalNodes>
      <leafValues>
        -1.7029625177383423e-01 3.0924963951110840e-01</leafValues></_>
    <_>
      <internalNodes>
        0 -1 58622 -534339584 -24083705 -545059695 -1189941437 -34780708
        -2069411055 -100935292 76557884</internalNodes>
      <leafValues>
        -3.7996411323547363e-01 1.4106486737728119e-01</leafValues></_>
    <_>
      <internalNodes>
        0 -1 32100 -586612104 -124763136 -1792120391 510658633
        -516253448 -1158662010 12110477 419504344</internalNodes>
      <leafValues>
        -3.2792702317237854e-01 1.3922591507434845e-01</leafValues></_></weakClassifiers></stage8>
</opencv_storage>
