<?xml version="1.0"?>
<opencv_storage>
<stage2>
  <maxWeakCount>22</maxWeakCount>
  <stageThreshold>-1.4675581455230713e+00</stageThreshold>
  <weakClassifiers>
    <_>
      <internalNodes>
        0 -1 33765 19596735 1069226771 263917567 1058996505 656878763
        -1346672213 389750223 -1613811777</internalNodes>
      <leafValues>
        -6.3326036930084229e-01 -1.6485225409269333e-02</leafValues></_>
    <_>
      <internalNodes>
        0 -1 4180 -11273518 -176275291 965619929 -753319430 -558854178
        -268457732 9078970 171638846</internalNodes>
      <leafValues>
        -3.5316011309623718e-01 2.0697765052318573e-01</leafValues></_>
    <_>
      <internalNodes>
        0 -1 5237 -250556208 -541373340 -1077391280 1427459732
        -1144944488 -1081124374 1336527099 -4203041</internalNodes>
      <leafValues>
        -2.7500802278518677e-01 2.8278344869613647e-01</leafValues></_>
    <_>
      <internalNodes>
        0 -1 50785 -645214054 -543090504 -619707941 1494290772
        -1199007590 -620015560 403092190 -1618313078</internalNodes>
      <leafValues>
        -2.0683270692825317e-01 3.6073365807533264e-01</leafValues></_>
    <_>
      <internalNodes>
        0 -1 45262 -40779560 -84737860 347734975 1564150944 -1970358118
        -1079291208 -1739943169 -98844469</internalNodes>
      <leafValues>
        -2.1300961077213287e-01 3.6953485012054443e-01</leafValues></_>
    <_>
      <internalNodes>
        0 -1 50730 -669990856 -170850128 353374224 1542523152 17334472
        707347156 263031226 521247896</internalNodes>
      <leafValues>
        -4.0773931145668030e-01 1.6181683540344238e-01</leafValues></_>
    <_>
      <internalNodes>
        0 -1 49001 -653737576 -105578088 328890871 -707391011 -811942658
        -1611883043 -1157583873 -71576373</internalNodes>
      <leafValues>
        -1.7818616330623627e-01 3.8246211409568787e-01</leafValues></_>
    <_>
      <internalNodes>
        0 -1 1411 -642056060 2128429564 -1085290027 -35848100 671028398
        266276272 1041180843 1127417175</internalNodes>
      <leafValues>
        -3.8621795177459717e-01 1.7479789257049561e-01</leafValues></_>
    <_>
      <internalNodes>
        0 -1 49125 -39724808 -578478064 169347925 1531991312 -1457356648
        -609087080 134352300 161480916</internalNodes>
      <leafValues>
        -3.0163097381591797e-01 2.3959535360336304e-01</leafValues></_>
    <_>
      <internalNodes>
        0 -1 39181 -608970536 -544630744 168385205 1508727856
        -1693804404 -1132585172 -1977688098 -872699651</internalNodes>
      <leafValues>
        -2.4205797910690308e-01 2.9528352618217468e-01</leafValues></_>
    <_>
      <internalNodes>
        0 -1 38692 -116666232 -12443256 637798804 1562202913 -1877991208
        270938246 268471178 1914425802</internalNodes>
      <leafValues>
        -2.6745373010635376e-01 2.5763779878616333e-01</leafValues></_>
    <_>
      <internalNodes>
        0 -1 4612 -115292717 -8961569 -1789287971 528031117 -1325066248
        -779137676 658222043 1005538457</internalNodes>
      <leafValues>
        -2.6428884267807007e-01 2.6179370284080505e-01</leafValues></_>
    <_>
      <internalNodes>
        0 -1 24037 -567086885 -771827710 351555829 -652381722
        -1641543458 -586601977 -321449509 -81807429</internalNodes>
      <leafValues>
        -1.6566729545593262e-01 4.3298539519309998e-01</leafValues></_>
    <_>
      <internalNodes>
        0 -1 57960 -670903680 -795697152 286556944 286361808 553749128
        136317040 1111625450 17007306</internalNodes>
      <leafValues>
        -3.6714649200439453e-01 1.8762123584747314e-01</leafValues></_>
    <_>
      <internalNodes>
        0 -1 26802 -131933744 -10420192 339274359 1399083220 -1434257156
        -93108724 342932123 -81110586</internalNodes>
      <leafValues>
        -2.2404719889163971e-01 3.0847290158271790e-01</leafValues></_>
    <_>
      <internalNodes>
        0 -1 66348 -349971184 967185431 -418066201 966736141 -1224217127
        -1844977179 -208542418 141201667</internalNodes>
      <leafValues>
        -2.9938411712646484e-01 2.3245336115360260e-01</leafValues></_>
    <_>
      <internalNodes>
        0 -1 48644 -75761974 -620250896 805913057 928483521 -341593400
        -829246912 -2006605158 -80743985</internalNodes>
      <leafValues>
        -1.7727372050285339e-01 3.9778581261634827e-01</leafValues></_>
    <_>
      <internalNodes>
        0 -1 54030 1532359440 2067289268 2015499733 -638946976
        -1908456806 -1420361031 47854046 -1410610239</internalNodes>
      <leafValues>
        -2.6689118146896362e-01 2.6334926486015320e-01</leafValues></_>
    <_>
      <internalNodes>
        0 -1 86 1022920968 743462810 822146943 -573310034 937195167
        -4292919 -1393252417 819528997</internalNodes>
      <leafValues>
        -4.1934487223625183e-01 1.7123097181320190e-01</leafValues></_>
    <_>
      <internalNodes>
        0 -1 55594 -249502248 1532822916 639914457 896882240 -1875868486
        -2142235640 -2027894564 285771912</internalNodes>
      <leafValues>
        -3.5151731967926025e-01 2.0376124978065491e-01</leafValues></_>
    <_>
      <internalNodes>
        0 -1 53878 -550268710 -214354772 512128499 -137524076 -474308118
        -1650312967 -1274293526 -70278454</internalNodes>
      <leafValues>
        -1.7119652032852173e-01 4.0422233939170837e-01</leafValues></_>
    <_>
      <internalNodes>
        0 -1 18246 -1623604490 -1751971728 1747853363 2071274453
        677505152 -1085658560 217314015 1583045691</internalNodes>
      <leafValues>
        -2.8681176900863647e-01 2.5912854075431824e-01</leafValues></_></weakClassifiers></stage2>
</opencv_storage>
