<?xml version="1.0"?>
<opencv_storage>
<stage19>
  <maxWeakCount>23</maxWeakCount>
  <stageThreshold>-1.4343415498733521e+00</stageThreshold>
  <weakClassifiers>
    <_>
      <internalNodes>
        0 -1 55732 -724446211 -71990825 152664503 -310015907 -1887146754
        -377383787 -1399149317 -1312161</internalNodes>
      <leafValues>
        -3.5242030024528503e-01 6.9617223739624023e-01</leafValues></_>
    <_>
      <internalNodes>
        0 -1 41150 -359272353 -21975027 -1121051143 -673822507
        -262936166 -589783923 156354559 -1638933655</internalNodes>
      <leafValues>
        -1.9366444647312164e-01 4.8662930727005005e-01</leafValues></_>
    <_>
      <internalNodes>
        0 -1 58136 -674120325 -603955104 50676119 -552400866 -1852401425
        -835654779 -54827016 -873474357</internalNodes>
      <leafValues>
        -1.0592586547136307e-01 6.0735857486724854e-01</leafValues></_>
    <_>
      <internalNodes>
        0 -1 58056 1981955571 -773179436 -536317470 -574233637
        1836310639 -992959761 -1745125137 -400905</internalNodes>
      <leafValues>
        -1.4448498189449310e-01 6.0345524549484253e-01</leafValues></_>
    <_>
      <internalNodes>
        0 -1 47291 1428023795 492592285 420532965 1610343714 -1163247205
        -280851597 -822934340 1274219687</internalNodes>
      <leafValues>
        -1.6130109131336212e-01 4.7830694913864136e-01</leafValues></_>
    <_>
      <internalNodes>
        0 -1 47048 -760088617 -539648062 -779783972 -882850070
        2062596903 -1463767885 -365000003 -353501446</internalNodes>
      <leafValues>
        -1.3207291066646576e-01 6.2340450286865234e-01</leafValues></_>
    <_>
      <internalNodes>
        0 -1 45490 -390360705 -740526964 -752248283 -654109703 625527886
        -1185464557 -1395542629 -617906050</internalNodes>
      <leafValues>
        -1.3775575160980225e-01 5.6055980920791626e-01</leafValues></_>
    <_>
      <internalNodes>
        0 -1 50932 1344067267 -1852444074 132535667 1636357531
        -1333741461 -1196277836 -433965141 -1538338877</internalNodes>
      <leafValues>
        -1.8039917945861816e-01 4.7357839345932007e-01</leafValues></_>
    <_>
      <internalNodes>
        0 -1 51100 -244191143 1273827122 -1737392867 -660334845
        869070806 -166591845 1771621811 -1465962</internalNodes>
      <leafValues>
        -1.7888130247592926e-01 4.8495957255363464e-01</leafValues></_>
    <_>
      <internalNodes>
        0 -1 48518 -371982393 2091634186 406847638 1897771689 -731602760
        -12058382 156615403 -548695893</internalNodes>
      <leafValues>
        -1.5016441047191620e-01 5.7430160045623779e-01</leafValues></_>
    <_>
      <internalNodes>
        0 -1 50797 1941129674 -564909968 -450562861 163578027
        -1407284813 -357052263 77639218 -1933614605</internalNodes>
      <leafValues>
        -2.0054464042186737e-01 4.4264045357704163e-01</leafValues></_>
    <_>
      <internalNodes>
        0 -1 58285 -1284385522 1563013893 87359877 -1620448523
        -979068098 -1332651746 134464007 -1884422060</internalNodes>
      <leafValues>
        -3.1470477581024170e-01 3.2673433423042297e-01</leafValues></_>
    <_>
      <internalNodes>
        0 -1 43448 -1838587905 -1379840826 1959396665 -708143215
        1638368955 -1095756800 34507711 -879073421</internalNodes>
      <leafValues>
        -1.7495557665824890e-01 5.5996435880661011e-01</leafValues></_>
    <_>
      <internalNodes>
        0 -1 67270 -1070534584 -144931440 -383676085 396970714
        -1523662440 347776304 482646703 1605437278</internalNodes>
      <leafValues>
        -2.7772974967956543e-01 3.6575672030448914e-01</leafValues></_>
    <_>
      <internalNodes>
        0 -1 12112 -174340201 -1354726446 914054612 -3968971 499813835
        -1176857828 -547697253 -2022584021</internalNodes>
      <leafValues>
        -1.9636167585849762e-01 5.7435697317123413e-01</leafValues></_>
    <_>
      <internalNodes>
        0 -1 38692 -249658902 -65859402 902319508 -1999269798
        -1046986577 -1199092054 337033899 -123740221</internalNodes>
      <leafValues>
        -2.1177303791046143e-01 4.7664859890937805e-01</leafValues></_>
    <_>
      <internalNodes>
        0 -1 5286 -613970577 -1777200501 -819254977 -150712416 255105225
        1589659318 1746125959 -1789181883</internalNodes>
      <leafValues>
        -2.1804904937744141e-01 4.5040485262870789e-01</leafValues></_>
    <_>
      <internalNodes>
        0 -1 31900 -636981174 -1933279077 1363169745 -12009173
        1208625793 -1289576445 415240248 173433774</internalNodes>
      <leafValues>
        -3.6150875687599182e-01 3.0395165085792542e-01</leafValues></_>
    <_>
      <internalNodes>
        0 -1 24320 1360133395 1595984105 -2122994569 1532204481
        1311920327 -1150380462 395234984 -296755681</internalNodes>
      <leafValues>
        -2.0701549947261810e-01 5.8392989635467529e-01</leafValues></_>
    <_>
      <internalNodes>
        0 -1 59545 -83840341 -48635056 228787855 626990830 -1996448167
        817380776 -347876370 1653786760</internalNodes>
      <leafValues>
        -2.5515162944793701e-01 4.2087242007255554e-01</leafValues></_>
    <_>
      <internalNodes>
        0 -1 50347 -1648954145 -187228928 -1898277137 -102612840
        -586428251 -591297152 -935205917 -1182030113</internalNodes>
      <leafValues>
        -1.7387896776199341e-01 6.2221032381057739e-01</leafValues></_>
    <_>
      <internalNodes>
        0 -1 15203 -841385097 -711611981 -2060626017 1356835401
        -1106240879 -101710156 -834105685 -70991601</internalNodes>
      <leafValues>
        -1.6719087958335876e-01 6.4112651348114014e-01</leafValues></_>
    <_>
      <internalNodes>
        0 -1 18550 1594413465 -697547081 900208317 1601844891
        -1778082517 777319193 -2143233375 -543439857</internalNodes>
      <leafValues>
        -2.0078898966312408e-01 5.5657851696014404e-01</leafValues></_></weakClassifiers></stage19>
</opencv_storage>
