<?xml version="1.0"?>
<opencv_storage>
<stage4>
  <maxWeakCount>20</maxWeakCount>
  <stageThreshold>-1.2613056898117065e+00</stageThreshold>
  <weakClassifiers>
    <_>
      <internalNodes>
        0 -1 404558 7.4651710689067841e-02</internalNodes>
      <leafValues>
        -1.8582169711589813e-01 6.4312267303466797e-01</leafValues></_>
    <_>
      <internalNodes>
        0 -1 492553 1.4113940778770484e-05</internalNodes>
      <leafValues>
        -5.5316162109375000e-01 2.1575354039669037e-01</leafValues></_>
    <_>
      <internalNodes>
        0 -1 327335 1.2929467484354973e-02</internalNodes>
      <leafValues>
        -1.9933344423770905e-01 5.6870257854461670e-01</leafValues></_>
    <_>
      <internalNodes>
        0 -1 450180 -3.3571729436516762e-03</internalNodes>
      <leafValues>
        5.6452995538711548e-01 -1.9173264503479004e-01</leafValues></_>
    <_>
      <internalNodes>
        0 -1 530194 -3.1055353581905365e-02</internalNodes>
      <leafValues>
        4.5448201894760132e-01 -2.4004529416561127e-01</leafValues></_>
    <_>
      <internalNodes>
        0 -1 275335 -2.5420715101063251e-03</internalNodes>
      <leafValues>
        2.9834911227226257e-01 -3.1493145227432251e-01</leafValues></_>
    <_>
      <internalNodes>
        0 -1 559458 -1.0349989170208573e-03</internalNodes>
      <leafValues>
        5.1163107156753540e-01 -1.9761440157890320e-01</leafValues></_>
    <_>
      <internalNodes>
        0 -1 562263 1.6516360919922590e-03</internalNodes>
      <leafValues>
        -1.6100966930389404e-01 4.2520353198051453e-01</leafValues></_>
    <_>
      <internalNodes>
        0 -1 517751 -4.5253364369273186e-03</internalNodes>
      <leafValues>
        -6.3489919900894165e-01 1.0629270225763321e-01</leafValues></_>
    <_>
      <internalNodes>
        0 -1 436081 2.2279676049947739e-02</internalNodes>
      <leafValues>
        1.2827010452747345e-01 -5.8762586116790771e-01</leafValues></_>
    <_>
      <internalNodes>
        0 -1 450735 -8.6248992010951042e-04</internalNodes>
      <leafValues>
        -6.6879236698150635e-01 1.2041904777288437e-01</leafValues></_>
    <_>
      <internalNodes>
        0 -1 330963 -2.7590561658143997e-03</internalNodes>
      <leafValues>
        4.0107023715972900e-01 -1.8741479516029358e-01</leafValues></_>
    <_>
      <internalNodes>
        0 -1 450735 6.3113623764365911e-04</internalNodes>
      <leafValues>
        1.2506419420242310e-01 -6.6186177730560303e-01</leafValues></_>
    <_>
      <internalNodes>
        0 -1 561161 -2.2167409770190716e-03</internalNodes>
      <leafValues>
        4.2793953418731689e-01 -1.6719600558280945e-01</leafValues></_>
    <_>
      <internalNodes>
        0 -1 89429 -6.5910192206501961e-03</internalNodes>
      <leafValues>
        3.0548137426376343e-01 -2.0413902401924133e-01</leafValues></_>
    <_>
      <internalNodes>
        0 -1 478594 2.4788684677332640e-03</internalNodes>
      <leafValues>
        -1.5150557458400726e-01 4.9542596936225891e-01</leafValues></_>
    <_>
      <internalNodes>
        0 -1 578814 1.8956655636429787e-02</internalNodes>
      <leafValues>
        -1.5080881118774414e-01 3.9974027872085571e-01</leafValues></_>
    <_>
      <internalNodes>
        0 -1 561978 -6.2304618768393993e-04</internalNodes>
      <leafValues>
        -4.9163076281547546e-01 1.2952549755573273e-01</leafValues></_>
    <_>
      <internalNodes>
        0 -1 528194 -1.8009992782026529e-03</internalNodes>
      <leafValues>
        5.1407790184020996e-01 -1.3680429756641388e-01</leafValues></_>
    <_>
      <internalNodes>
        0 -1 571332 -1.3580350205302238e-03</internalNodes>
      <leafValues>
        -5.0489014387130737e-01 1.4579282701015472e-01</leafValues></_></weakClassifiers></stage4>
</opencv_storage>
