<?xml version="1.0"?>
<opencv_storage>
<stage0>
  <maxWeakCount>9</maxWeakCount>
  <stageThreshold>-1.3210428953170776e+00</stageThreshold>
  <weakClassifiers>
    <_>
      <internalNodes>
        0 -1 367321 -6.6649960353970528e-03</internalNodes>
      <leafValues>
        5.9408605098724365e-01 -4.1856059432029724e-01</leafValues></_>
    <_>
      <internalNodes>
        0 -1 479174 2.1174646099098027e-04</internalNodes>
      <leafValues>
        -5.8483546972274780e-01 4.0901184082031250e-01</leafValues></_>
    <_>
      <internalNodes>
        0 -1 283499 -2.2380639612674713e-01</internalNodes>
      <leafValues>
        8.4894478321075439e-01 -2.4824769794940948e-01</leafValues></_>
    <_>
      <internalNodes>
        0 -1 351025 -1.0950639098882675e-01</internalNodes>
      <leafValues>
        8.2198816537857056e-01 -2.2502556443214417e-01</leafValues></_>
    <_>
      <internalNodes>
        0 -1 451014 -7.1316198445856571e-03</internalNodes>
      <leafValues>
        -7.8206467628479004e-01 1.9821903109550476e-01</leafValues></_>
    <_>
      <internalNodes>
        0 -1 323694 3.6808162927627563e-02</internalNodes>
      <leafValues>
        -2.0741580426692963e-01 6.5421736240386963e-01</leafValues></_>
    <_>
      <internalNodes>
        0 -1 458058 -9.8354399204254150e-02</internalNodes>
      <leafValues>
        6.7849111557006836e-01 -1.7797257006168365e-01</leafValues></_>
    <_>
      <internalNodes>
        0 -1 596263 2.2313692606985569e-03</internalNodes>
      <leafValues>
        1.7501348257064819e-01 -7.3335337638854980e-01</leafValues></_>
    <_>
      <internalNodes>
        0 -1 596823 -6.3041882822290063e-04</internalNodes>
      <leafValues>
        -6.9298434257507324e-01 1.5421870350837708e-01</leafValues></_></weakClassifiers></stage0>
</opencv_storage>
